-4.908474297539154    4.759317539757784    2.2839084824914475    -14.798515812577277    3.8723726291488894    -5.907189297060733    -10.792554456820877
-0.9103269555752997    -2.2667673754635715    4.203884228623793    10.968507306002428    6.033651017095706    4.42049661527306    1.5830932642290674
4.196087600319918    1.974743107285752    -5.836307521880332    -7.9674874028079    7.271387423961265    2.0263159978329615    -6.282641094553121
11.80957589569058    -0.03590615940156239    6.194014821459543    -11.353351877690658    9.721012488903703    -14.976334362223458    8.152668959623421
-5.9417350116992385    -4.113508485064883    5.832699024740242    -5.290046879517245    21.099147442592436    1.0437881506078757    -2.4175648066905815
-2.151479691315504    -5.045557288298883    3.700142034133145    -20.092797897383896    8.928453064056315    -7.5256799129265035    11.489312819723756
4.3830150491779465    10.952280148583895    -3.6012071469040743    9.752208174378092    8.033667970479703    -3.8892458466080413    4.316205173025845
3.290548287907807    -12.098618000021421    -6.869763622494002    -6.7810270056862905    -13.841983096334276    -2.693344033812227    2.5386634602845284
-0.9462733560393382    -9.92190712040446    -0.32328667405753797    1.3175520547989046    -11.994888942155312    -1.5752456835561337    -17.969475072090138
5.049003573983423    -0.9847526029655893    5.366917871239808    -15.34840305101138    -2.3226158390481277    7.207451053004353    -11.32964990376983
