8.53760806115552    8.502560849518199    4.345887980001264    -16.630186264534647    3.1771074141394138    -6.740572862293539    -28.290372545737675    6.769419890656803    -9.016432640092065    -14.06647810019228    0.537648642350808
1.7386174524873266    -3.8940229296804096    -14.013109060501797    -0.44580537995629643    -10.932253705559543    -18.528626395705725    -7.004926359487219    -10.844124756462865    6.3442628048914065    -8.486502417856917    -5.014137189552045
-6.989677860873859    -17.265106536808325    -7.86426618947832    7.166899450611297    -13.537107530204189    13.833836737622024    -6.066645609532247    2.0018926567819775    -8.489181131679441    -0.8338247187338811    13.208229036850812
-0.5975072652361049    -0.8410082574907198    -1.9581166299949284    -3.7633655966782578    -6.2056803737386605    -3.054642611191437    -2.7206215176674684    -2.9749147669032627    15.772285854841503    -6.513974853513552    -0.246142233733619
9.374562909737175    -4.449848155430044    -15.913699942421307    11.817660469158236    16.88471355099926    -1.7271018268505856    -5.489585762903464    -2.043010793242947    9.502918273693046    3.4517678193146866    -5.4704227515201
15.607702653812606    -2.070241116728355    6.334059094350202    -8.633645622082268    12.865689366096923    -0.09633760322168472    -0.15872045309279542    -7.980622288285472    -11.138617167045245    8.09327469530676    16.344515742559004
