36.025210663579465    -23.65407394841672    -21.922200545239754    11.891602546177012    -21.721657326480177    28.786186425600913
22.580870485885377    -95.20780587338064    -7.931053379102833    45.516021979519174    118.69091827259894    -12.480994131750705
-84.70088810501417    35.950059393021796    -82.53292511682521    -88.62014008626761    55.23784679829999    -82.43510416211512
-32.59612777861826    -14.376880066968868    59.7774321324461    -12.009843519542876    -42.609620295315196    -25.464150784996615
-21.709770087723346    62.47682058422155    -28.05510975228431    -16.817708387576435    -14.168757407676148    -151.80447643124282
-20.630560002072958    -13.537658308734855    39.453986681213706    -16.82280128508824    41.77031904147847    -83.14399864738289
-44.656526859921065    61.785846276115386    40.882141191277576    34.96931678911194    -70.89879796018697    -16.72552172003554
4.7416548557292915    -17.78498045740675    22.975081303311143    16.67067420039043    25.357530099139264    -61.704133224035765
-2.3572667909152116    -26.95802990599659    -9.850403848585284    -2.2077258196236653    15.981048908885889    -64.34099413149472
46.38778256285856    63.43645878245244    21.758988618003684    100.24619224698365    4.574987441472422    32.249760542875606
27.575201155153536    24.4273209164292    42.023413963039346    -39.044008039327565    -37.60000462001166    32.482877036354104
6.1977297161220735    4.4207715010334026    69.77107799281639    21.228565491512096    -6.231266978320072    -30.63606506916854
30.970963818539897    -99.31390563426318    -60.30039177938732    -18.437695518796417    -26.605708093178578    -22.961414184199498
34.49920808145504    35.94725619717405    -62.03927340510153    -128.47350759943552    30.980795408901876    -20.272460589361646
-22.398105320174004    -28.697705426982846    38.03390264683362    79.78412479268033    24.593812630077544    -15.337024532183365
-22.311657466049052    10.767119205321613    -25.95127774962001    -15.306024392983113    1.110305931232421    -9.34884951107708
17.604916610250644    -15.322240687362696    -23.83395127772759    51.35232513300542    -89.98908845932232    28.895621272531567
49.31096499314658    30.271367844549413    -15.328254404826977    -23.182596407909884    26.232168565499613    -18.57715693896365
25.204373939667146    -126.0080964087066    5.822972982550131    -108.76381729571483    71.09758201900668    21.053565485879876
