8.090414538214697    8.380046752199032    5.020075458677263    -14.397110219632566    -17.071923409964683    9.186391175187389
-0.16719842475404645    1.1172392020717699    0.3348662109344974    -2.319730095293055    -6.475949411809319    3.7420997015722364
-2.2731591581376045    -0.10269036916594915    0.45375829496138603    -0.8044368299929415    0.3040581828930273    14.090311915193146
0.7347609829079087    -0.11907245242881388    0.5296164727757035    -0.787391625154967    -8.183213518975121    19.937336296231557
0.8833995632041358    1.2251477549468621    -1.0833758265820261    -2.53101107465687    5.794713090757718    -4.490884752581549
1.098792284136092    -0.007938302628237397    -0.46328530588506034    6.770668279932537    -0.2973668794516832    -9.303583243809966
-3.1692777200585613    2.423134835441818    -1.6570672241165478    -0.33304827289929584    -0.12067228586535028    4.537396926532013
-0.8011244711960758    1.614840583577897    0.19398009469620803    -3.3219043852509977    0.40807927965284546    7.490719133477719
-1.0002290409127326    0.053161162653864544    0.8612966243245702    2.5026494644061446    0.1586230973103689    -15.060125115173033
-0.583032563935266    -0.9839020393064717    0.8602271991623905    2.642666361250503    -8.741796515853492    4.93708516058609
3.081510457024589    -3.223111416132807    -8.54978287822608    5.9092478363974985    1.347535414896834    -12.59919200670766
-1.185235150124958    -0.12218884408124393    0.4190429735257561    -6.276548710303845    0.35172086474970926    9.7514887184411
-2.825953417153306    2.7429052074816553    -3.055799895260466    -10.671959027809168    2.497858287430768    -3.647159827918501
9.009802779569624    -0.6630779090414504    -30.343944155052533    -0.21951211923176933    -1.1526156815185278    8.814356502641909
-2.2153880188136506    1.8848660327492959    -10.915274644014769    -0.898357153834811    0.1368669273871057    32.13237655969518
1.3180731589739525    -1.1347856070910798    1.8924468996219483    -1.1241945820793087    0.30071330577076233    -3.6517800827714217
0.2812512806351465    -0.669717393490291    -0.43187741977358474    1.5161586866511036    0.5317310076451464    1.7923939504147104
-0.510933317376751    0.6921456043075123    1.0899507773752608    -3.5170635131346564    0.017290274064525702    -5.6300261699830925
1.2708882777210644    -1.030973502915886    2.5502412793334477    2.3983876668316273    0.359216893456909    -11.635980868106824
