8.090423023573726    8.380050675062893    5.020082161962536    -14.397105121559019    -17.071919784692653    9.186392678926763
-0.1671975412067661    1.1172396494148775    0.33486711986226425    -2.319729932654757    -6.475949249918743    3.742099863395741
-2.2731575850670125    -0.1026878725124722    0.45376461214636216    -0.8044352310506514    0.30406113045381644    14.090313295154203
0.7347805420347706    -0.11906306308243987    0.5296377420705076    -0.787385049170283    -8.18321020777249    19.937339607203803
0.8834569277985298    1.225178237206386    -1.0833186302136586    -2.530978739498    5.794723980242547    -4.490875142898882
1.0987976446995178    -0.007936020221725576    -0.4632827043948287    6.7706683735872835    -0.2973600511297359    -9.303581535392727
-3.1692774486913677    2.4231352298874853    -1.6570670194281762    -0.3330480607658761    -0.12067200214480998    4.537397021899808
-0.8010946323115881    1.6148586024479754    0.19401016690458028    -3.3218975258236436    0.4080999758084515    7.490726713123973
-1.0002025497938292    0.0531708612187188    0.8613177384904122    2.502651643694515    0.15863966124115605    -15.06011936389192
-0.5829956704793089    -0.9838837988566294    0.8602645708156053    2.6426872479072894    -8.741790336570283    4.937091324755313
3.0815484692576938    -3.223094973472434    -8.54976147620229    5.909262111183887    1.3475589638215113    -12.59918466942679
-1.1852308422956814    -0.12218703274504948    0.4190451001532994    -6.276548631408437    0.3517264610955073    9.751490121583158
-2.825933925208591    2.7429158643676557    -3.0557934116333896    -10.671958886392234    2.4978775265003295    -3.6471550181527883
9.009802780167828    -0.6630779086396271    -30.34394415493541    -0.21951211923070998    -1.1526156811200223    8.81435650274161
-2.2153880188128476    1.884866032749809    -10.915274644014575    -0.898357153834804    0.1368669273877235    32.13237655969534
1.3180755301863134    -1.1347829276865857    1.8924483496656286    -1.1241929244496884    0.3007151747776822    -3.651779416205496
0.2813566300513185    -0.6696456284923401    -0.4317725886557961    1.5162002517590287    0.5317751322968645    1.7924140400297575
-0.5108964466849888    0.692169026527011    1.0899816545737677    -3.5170545247903924    0.017314386746197157    -5.630018048245449
1.270888309473731    -1.0309734856251072    2.550241290179856    2.398387667190068    0.35921692535892247    -11.635980860118648
